<?xml version="1.0"?>
<opencv_storage>
<cascade>
  <stageType>BOOST</stageType>
  <featureType>HAAR</featureType>
  <height>24</height>
  <width>24</width>
  <stageParams>
    <boostType>GAB</boostType>
    <minHitRate>9.9500000476837158e-01</minHitRate>
    <maxFalseAlarm>5.0000000000000000e-01</maxFalseAlarm>
    <weightTrimRate>9.4999998807907104e-01</weightTrimRate>
    <maxDepth>1</maxDepth>
    <maxWeakCount>100</maxWeakCount></stageParams>
  <featureParams>
    <maxCatCount>0</maxCatCount>
    <featSize>1</featSize>
    <mode>BASIC</mode></featureParams>
  <stageNum>16</stageNum>
  <stages>
    <!-- stage 0 -->
    <_>
      <maxWeakCount>2</maxWeakCount>
      <stageThreshold>-1.1068408191204071e-01</stageThreshold>
      <weakClassifiers>
        <_>
          <internalNodes>
            0 -1 22 1.1048731952905655e-01</internalNodes>
          <leafValues>
            -9.2929291725158691e-01 8.8888889551162720e-01</leafValues></_>
        <_>
          <internalNodes>
            0 -1 8 -7.2777092456817627e-02</internalNodes>
          <leafValues>
            8.1860882043838501e-01 -9.8176217079162598e-01</leafValues></_></weakClassifiers></_>
    <!-- stage 1 -->
    <_>
      <maxWeakCount>2</maxWeakCount>
      <stageThreshold>-1.8291117250919342e-01</stageThreshold>
      <weakClassifiers>
        <_>
          <internalNodes>
            0 -1 29 -6.9704011082649231e-02</internalNodes>
          <leafValues>
            9.1250002384185791e-01 -9.3000000715255737e-01</leafValues></_>
        <_>
          <internalNodes>
            0 -1 4 -2.7516528964042664e-01</internalNodes>
          <leafValues>
            7.4708884954452515e-01 -9.5243763923645020e-01</leafValues></_></weakClassifiers></_>
    <!-- stage 2 -->
    <_>
      <maxWeakCount>4</maxWeakCount>
      <stageThreshold>-6.0678738355636597e-01</stageThreshold>
      <weakClassifiers>
        <_>
          <internalNodes>
            0 -1 36 -9.1532140970230103e-02</internalNodes>
          <leafValues>
            5.6149733066558838e-01 -8.3815026283264160e-01</leafValues></_>
        <_>
          <internalNodes>
            0 -1 10 2.7199562638998032e-02</internalNodes>
          <leafValues>
            -7.6009392738342285e-01 6.2430506944656372e-01</leafValues></_>
        <_>
          <internalNodes>
            0 -1 38 7.0841446518898010e-02</internalNodes>
          <leafValues>
            -8.2711720466613770e-01 4.9921229481697083e-01</leafValues></_>
        <_>
          <internalNodes>
            0 -1 27 1.1236759275197983e-01</internalNodes>
          <leafValues>
            -8.3906799554824829e-01 4.9224454164505005e-01</leafValues></_></weakClassifiers></_>
    <!-- stage 3 -->
    <_>
      <maxWeakCount>5</maxWeakCount>
      <stageThreshold>-1.4297264814376831e+00</stageThreshold>
      <weakClassifiers>
        <_>
          <internalNodes>
            0 -1 54 7.0727288722991943e-02</internalNodes>
          <leafValues>
            -8.3908045291900635e-01 5.6989246606826782e-01</leafValues></_>
        <_>
          <internalNodes>
            0 -1 26 -2.8967568650841713e-02</internalNodes>
          <leafValues>
            5.9575617313385010e-01 -6.2273174524307251e-01</leafValues></_>
        <_>
          <internalNodes>
            0 -1 18 -5.8599084615707397e-02</internalNodes>
          <leafValues>
            3.8934934139251709e-01 -9.2703181505203247e-01</leafValues></_>
        <_>
          <internalNodes>
            0 -1 53 1.3615241274237633e-02</internalNodes>
          <leafValues>
            -7.4426436424255371e-01 5.1020532846450806e-01</leafValues></_>
        <_>
          <internalNodes>
            0 -1 16 1.8951050151372328e-05</internalNodes>
          <leafValues>
            -8.1618630886077881e-01 3.8700067996978760e-01</leafValues></_></weakClassifiers></_>
    <!-- stage 4 -->
    <_>
      <maxWeakCount>4</maxWeakCount>
      <stageThreshold>-8.0794197320938110e-01</stageThreshold>
      <weakClassifiers>
        <_>
          <internalNodes>
            0 -1 30 -3.9818048477172852e-02</internalNodes>
          <leafValues>
            3.9366516470909119e-01 -9.1366904973983765e-01</leafValues></_>
        <_>
          <internalNodes>
            0 -1 43 -1.2617075815796852e-02</internalNodes>
          <leafValues>
            3.2355156540870667e-01 -9.4378358125686646e-01</leafValues></_>
        <_>
          <internalNodes>
            0 -1 25 -2.9758259188383818e-03</internalNodes>
          <leafValues>
            5.8085536956787109e-01 -5.8008015155792236e-01</leafValues></_>
        <_>
          <internalNodes>
            0 -1 50 2.3235417902469635e-03</internalNodes>
          <leafValues>
            3.6225563287734985e-01 -9.6336841583251953e-01</leafValues></_></weakClassifiers></_>
    <!-- stage 5 -->
    <_>
      <maxWeakCount>5</maxWeakCount>
      <stageThreshold>-1.2385481595993042e+00</stageThreshold>
      <weakClassifiers>
        <_>
          <internalNodes>
            0 -1 52 2.1351277828216553e-02</internalNodes>
          <leafValues>
            -8.1818181276321411e-01 4.8717948794364929e-01</leafValues></_>
        <_>
          <internalNodes>
            0 -1 33 1.0170599073171616e-01</internalNodes>
          <leafValues>
            -5.5388319492340088e-01 7.5380510091781616e-01</leafValues></_>
        <_>
          <internalNodes>
            0 -1 42 3.5888142883777618e-04</internalNodes>
          <leafValues>
            3.8994225859642029e-01 -9.5987570285797119e-01</leafValues></_>
        <_>
          <internalNodes>
            0 -1 57 4.2929397895932198e-03</internalNodes>
          <leafValues>
            -6.2683016061782837e-01 5.2966362237930298e-01</leafValues></_>
        <_>
          <internalNodes>
            0 -1 44 -4.7716717235743999e-03</internalNodes>
          <leafValues>
            -9.5258581638336182e-01 3.7040477991104126e-01</leafValues></_></weakClassifiers></_>
    <!-- stage 6 -->
    <_>
      <maxWeakCount>5</maxWeakCount>
      <stageThreshold>-1.0809333324432373e+00</stageThreshold>
      <weakClassifiers>
        <_>
          <internalNodes>
            0 -1 2 -2.6586398482322693e-02</internalNodes>
          <leafValues>
            5.8227849006652832e-01 -6.5346533060073853e-01</leafValues></_>
        <_>
          <internalNodes>
            0 -1 6 -7.4095338582992554e-02</internalNodes>
          <leafValues>
            4.0692323446273804e-01 -8.6978489160537720e-01</leafValues></_>
        <_>
          <internalNodes>
            0 -1 45 1.3746285438537598e-01</internalNodes>
          <leafValues>
            -5.1444518566131592e-01 6.4302420616149902e-01</leafValues></_>
        <_>
          <internalNodes>
            0 -1 20 -1.0353834368288517e-03</internalNodes>
          <leafValues>
            4.2318555712699890e-01 -8.8251286745071411e-01</leafValues></_>
        <_>
          <internalNodes>
            0 -1 46 -5.6748474016785622e-03</internalNodes>
          <leafValues>
            5.7321310043334961e-01 -5.9490257501602173e-01</leafValues></_></weakClassifiers></_>
    <!-- stage 7 -->
    <_>
      <maxWeakCount>3</maxWeakCount>
      <stageThreshold>-7.0408570766448975e-01</stageThreshold>
      <weakClassifiers>
        <_>
          <internalNodes>
            0 -1 3 -2.5733703747391701e-02</internalNodes>
          <leafValues>
            7.2727274894714355e-01 -5.9649121761322021e-01</leafValues></_>
        <_>
          <internalNodes>
            0 -1 56 4.0565229952335358e-02</internalNodes>
          <leafValues>
            -5.5570703744888306e-01 6.3174515962600708e-01</leafValues></_>
        <_>
          <internalNodes>
            0 -1 9 -2.1232551336288452e-01</internalNodes>
          <leafValues>
            5.6225067377090454e-01 -7.3933964967727661e-01</leafValues></_></weakClassifiers></_>
    <!-- stage 8 -->
    <_>
      <maxWeakCount>4</maxWeakCount>
      <stageThreshold>-5.1556998491287231e-01</stageThreshold>
      <weakClassifiers>
        <_>
          <internalNodes>
            0 -1 14 -8.9108496904373169e-03</internalNodes>
          <leafValues>
            3.9013454318046570e-01 -9.2700731754302979e-01</leafValues></_>
        <_>
          <internalNodes>
            0 -1 47 -9.9043250083923340e-03</internalNodes>
          <leafValues>
            7.6906931400299072e-01 -4.5484095811843872e-01</leafValues></_>
        <_>
          <internalNodes>
            0 -1 13 -2.1296967752277851e-03</internalNodes>
          <leafValues>
            3.6945983767509460e-01 -1.</leafValues></_>
        <_>
          <internalNodes>
            0 -1 28 -3.8619716651737690e-03</internalNodes>
          <leafValues>
            -6.8536591529846191e-01 4.9681842327117920e-01</leafValues></_></weakClassifiers></_>
    <!-- stage 9 -->
    <_>
      <maxWeakCount>3</maxWeakCount>
      <stageThreshold>-2.7534690499305725e-01</stageThreshold>
      <weakClassifiers>
        <_>
          <internalNodes>
            0 -1 5 -3.9604362100362778e-03</internalNodes>
          <leafValues>
            -8.8888889551162720e-01 4.0740740299224854e-01</leafValues></_>
        <_>
          <internalNodes>
            0 -1 49 -4.0447516948916018e-04</internalNodes>
          <leafValues>
            2.9580479860305786e-01 -9.2743682861328125e-01</leafValues></_>
        <_>
          <internalNodes>
            0 -1 11 -8.9114353060722351e-02</internalNodes>
          <leafValues>
            3.1773719191551208e-01 -9.4656121730804443e-01</leafValues></_></weakClassifiers></_>
    <!-- stage 10 -->
    <_>
      <maxWeakCount>5</maxWeakCount>
      <stageThreshold>-1.2348984479904175e+00</stageThreshold>
      <weakClassifiers>
        <_>
          <internalNodes>
            0 -1 35 -2.2708017379045486e-02</internalNodes>
          <leafValues>
            6.7647057771682739e-01 -5.8928573131561279e-01</leafValues></_>
        <_>
          <internalNodes>
            0 -1 48 4.5715525746345520e-02</internalNodes>
          <leafValues>
            -8.3312469720840454e-01 4.3581047654151917e-01</leafValues></_>
        <_>
          <internalNodes>
            0 -1 0 -1.8011316657066345e-02</internalNodes>
          <leafValues>
            -9.0815496444702148e-01 3.3254340291023254e-01</leafValues></_>
        <_>
          <internalNodes>
            0 -1 23 -1.8886107951402664e-02</internalNodes>
          <leafValues>
            3.8112151622772217e-01 -9.3794971704483032e-01</leafValues></_>
        <_>
          <internalNodes>
            0 -1 59 8.9930491521954536e-03</internalNodes>
          <leafValues>
            -5.2615290880203247e-01 6.9798934459686279e-01</leafValues></_></weakClassifiers></_>
    <!-- stage 11 -->
    <_>
      <maxWeakCount>4</maxWeakCount>
      <stageThreshold>-1.0733305215835571e+00</stageThreshold>
      <weakClassifiers>
        <_>
          <internalNodes>
            0 -1 24 -7.8917369246482849e-03</internalNodes>
          <leafValues>
            -9.3197280168533325e-01 4.5539906620979309e-01</leafValues></_>
        <_>
          <internalNodes>
            0 -1 39 3.9960007416084409e-04</internalNodes>
          <leafValues>
            3.6939695477485657e-01 -6.7757070064544678e-01</leafValues></_>
        <_>
          <internalNodes>
            0 -1 51 -2.9252071399241686e-03</internalNodes>
          <leafValues>
            -9.5423525571823120e-01 2.7270892262458801e-01</leafValues></_>
        <_>
          <internalNodes>
            0 -1 19 -2.7677530422806740e-02</internalNodes>
          <leafValues>
            -9.7032111883163452e-01 2.6350411772727966e-01</leafValues></_></weakClassifiers></_>
    <!-- stage 12 -->
    <_>
      <maxWeakCount>6</maxWeakCount>
      <stageThreshold>-1.0352630615234375e+00</stageThreshold>
      <weakClassifiers>
        <_>
          <internalNodes>
            0 -1 41 2.0355321466922760e-03</internalNodes>
          <leafValues>
            -5.4112553596496582e-01 6.5891474485397339e-01</leafValues></_>
        <_>
          <internalNodes>
            0 -1 21 -7.7113779261708260e-03</internalNodes>
          <leafValues>
            4.2619672417640686e-01 -8.5466217994689941e-01</leafValues></_>
        <_>
          <internalNodes>
            0 -1 61 4.6263902913779020e-04</internalNodes>
          <leafValues>
            2.6529210805892944e-01 -9.4751757383346558e-01</leafValues></_>
        <_>
          <internalNodes>
            0 -1 1 -4.0866397321224213e-03</internalNodes>
          <leafValues>
            -8.4385752677917480e-01 3.4736683964729309e-01</leafValues></_>
        <_>
          <internalNodes>
            0 -1 31 -2.6650387793779373e-02</internalNodes>
          <leafValues>
            4.5894286036491394e-01 -6.8589884042739868e-01</leafValues></_>
        <_>
          <internalNodes>
            0 -1 7 -3.8044410943984985e-01</internalNodes>
          <leafValues>
            4.3376451730728149e-01 -6.6768497228622437e-01</leafValues></_></weakClassifiers></_>
    <!-- stage 13 -->
    <_>
      <maxWeakCount>4</maxWeakCount>
      <stageThreshold>-3.4766864776611328e-01</stageThreshold>
      <weakClassifiers>
        <_>
          <internalNodes>
            0 -1 40 -1.6149799339473248e-03</internalNodes>
          <leafValues>
            -6.9849246740341187e-01 6.1490684747695923e-01</leafValues></_>
        <_>
          <internalNodes>
            0 -1 32 1.7139773070812225e-01</internalNodes>
          <leafValues>
            -5.8425587415695190e-01 7.2387844324111938e-01</leafValues></_>
        <_>
          <internalNodes>
            0 -1 60 1.5024297681520693e-05</internalNodes>
          <leafValues>
            -6.9172984361648560e-01 5.4981559514999390e-01</leafValues></_>
        <_>
          <internalNodes>
            0 -1 15 -6.0102902352809906e-02</internalNodes>
          <leafValues>
            3.8526403903961182e-01 -8.3414459228515625e-01</leafValues></_></weakClassifiers></_>
    <!-- stage 14 -->
    <_>
      <maxWeakCount>3</maxWeakCount>
      <stageThreshold>-7.1517521142959595e-01</stageThreshold>
      <weakClassifiers>
        <_>
          <internalNodes>
            0 -1 34 3.1662926077842712e-02</internalNodes>
          <leafValues>
            -7.1555554866790771e-01 8.9629632234573364e-01</leafValues></_>
        <_>
          <internalNodes>
            0 -1 37 -9.0444309171289206e-04</internalNodes>
          <leafValues>
            -8.4275788068771362e-01 6.8518561124801636e-01</leafValues></_>
        <_>
          <internalNodes>
            0 -1 58 -4.6462955651804805e-04</internalNodes>
          <leafValues>
            -6.8480527400970459e-01 8.6127883195877075e-01</leafValues></_></weakClassifiers></_>
    <!-- stage 15 -->
    <_>
      <maxWeakCount>3</maxWeakCount>
      <stageThreshold>-5.0057834386825562e-01</stageThreshold>
      <weakClassifiers>
        <_>
          <internalNodes>
            0 -1 12 -1.5744306147098541e-02</internalNodes>
          <leafValues>
            1. -7.2413790225982666e-01</leafValues></_>
        <_>
          <internalNodes>
            0 -1 17 1.8152941018342972e-02</internalNodes>
          <leafValues>
            -6.9650125503540039e-01 8.1910657882690430e-01</leafValues></_>
        <_>
          <internalNodes>
            0 -1 55 -2.5976094548241235e-05</internalNodes>
          <leafValues>
            1. -5.9554696083068848e-01</leafValues></_></weakClassifiers></_></stages>
  <features>
    <_>
      <rects>
        <_>
          0 0 16 2 -1.</_>
        <_>
          8 0 8 2 2.</_></rects>
      <tilted>0</tilted></_>
    <_>
      <rects>
        <_>
          0 1 1 21 -1.</_>
        <_>
          0 8 1 7 3.</_></rects>
      <tilted>0</tilted></_>
    <_>
      <rects>
        <_>
          0 1 6 12 -1.</_>
        <_>
          0 1 3 6 2.</_>
        <_>
          3 7 3 6 2.</_></rects>
      <tilted>0</tilted></_>
    <_>
      <rects>
        <_>
          0 1 10 6 -1.</_>
        <_>
          0 1 5 3 2.</_>
        <_>
          5 4 5 3 2.</_></rects>
      <tilted>0</tilted></_>
    <_>
      <rects>
        <_>
          0 2 24 20 -1.</_>
        <_>
          8 2 8 20 3.</_></rects>
      <tilted>0</tilted></_>
    <_>
      <rects>
        <_>
          0 3 1 12 -1.</_>
        <_>
          0 9 1 6 2.</_></rects>
      <tilted>0</tilted></_>
    <_>
      <rects>
        <_>
          0 3 18 6 -1.</_>
        <_>
          9 3 9 6 2.</_></rects>
      <tilted>0</tilted></_>
    <_>
      <rects>
        <_>
          0 5 24 14 -1.</_>
        <_>
          8 5 8 14 3.</_></rects>
      <tilted>0</tilted></_>
    <_>
      <rects>
        <_>
          0 6 8 16 -1.</_>
        <_>
          4 6 4 16 2.</_></rects>
      <tilted>0</tilted></_>
    <_>
      <rects>
        <_>
          0 8 18 16 -1.</_>
        <_>
          6 8 6 16 3.</_></rects>
      <tilted>0</tilted></_>
    <_>
      <rects>
        <_>
          0 14 8 10 -1.</_>
        <_>
          0 14 4 5 2.</_>
        <_>
          4 19 4 5 2.</_></rects>
      <tilted>0</tilted></_>
    <_>
      <rects>
        <_>
          1 0 8 21 -1.</_>
        <_>
          5 0 4 21 2.</_></rects>
      <tilted>0</tilted></_>
    <_>
      <rects>
        <_>
          1 1 10 6 -1.</_>
        <_>
          1 1 5 3 2.</_>
        <_>
          6 4 5 3 2.</_></rects>
      <tilted>0</tilted></_>
    <_>
      <rects>
        <_>
          1 6 11 4 -1.</_>
        <_>
          1 8 11 2 2.</_></rects>
      <tilted>0</tilted></_>
    <_>
      <rects>
        <_>
          1 10 8 9 -1.</_>
        <_>
          1 13 8 3 3.</_></rects>
      <tilted>0</tilted></_>
    <_>
      <rects>
        <_>
          1 11 8 9 -1.</_>
        <_>
          5 11 4 9 2.</_></rects>
      <tilted>0</tilted></_>
    <_>
      <rects>
        <_>
          1 14 3 7 -1.</_>
        <_>
          2 14 1 7 3.</_></rects>
      <tilted>0</tilted></_>
    <_>
      <rects>
        <_>
          1 16 8 8 -1.</_>
        <_>
          1 16 4 4 2.</_>
        <_>
          5 20 4 4 2.</_></rects>
      <tilted>0</tilted></_>
    <_>
      <rects>
        <_>
          2 0 6 23 -1.</_>
        <_>
          5 0 3 23 2.</_></rects>
      <tilted>0</tilted></_>
    <_>
      <rects>
        <_>
          2 0 21 2 -1.</_>
        <_>
          9 0 7 2 3.</_></rects>
      <tilted>0</tilted></_>
    <_>
      <rects>
        <_>
          2 8 10 6 -1.</_>
        <_>
          2 10 10 2 3.</_></rects>
      <tilted>0</tilted></_>
    <_>
      <rects>
        <_>
          2 10 6 9 -1.</_>
        <_>
          2 13 6 3 3.</_></rects>
      <tilted>0</tilted></_>
    <_>
      <rects>
        <_>
          2 14 15 10 -1.</_>
        <_>
          2 19 15 5 2.</_></rects>
      <tilted>0</tilted></_>
    <_>
      <rects>
        <_>
          3 0 14 7 -1.</_>
        <_>
          10 0 7 7 2.</_></rects>
      <tilted>0</tilted></_>
    <_>
      <rects>
        <_>
          3 0 18 1 -1.</_>
        <_>
          12 0 9 1 2.</_></rects>
      <tilted>0</tilted></_>
    <_>
      <rects>
        <_>
          3 1 2 10 -1.</_>
        <_>
          3 1 1 5 2.</_>
        <_>
          4 6 1 5 2.</_></rects>
      <tilted>0</tilted></_>
    <_>
      <rects>
        <_>
          3 4 3 15 -1.</_>
        <_>
          3 9 3 5 3.</_></rects>
      <tilted>0</tilted></_>
    <_>
      <rects>
        <_>
          3 14 13 10 -1.</_>
        <_>
          3 19 13 5 2.</_></rects>
      <tilted>0</tilted></_>
    <_>
      <rects>
        <_>
          4 0 16 2 -1.</_>
        <_>
          4 1 16 1 2.</_></rects>
      <tilted>0</tilted></_>
    <_>
      <rects>
        <_>
          4 1 16 8 -1.</_>
        <_>
          4 5 16 4 2.</_></rects>
      <tilted>0</tilted></_>
    <_>
      <rects>
        <_>
          4 2 17 6 -1.</_>
        <_>
          4 5 17 3 2.</_></rects>
      <tilted>0</tilted></_>
    <_>
      <rects>
        <_>
          4 3 20 9 -1.</_>
        <_>
          4 6 20 3 3.</_></rects>
      <tilted>0</tilted></_>
    <_>
      <rects>
        <_>
          4 14 16 10 -1.</_>
        <_>
          4 19 16 5 2.</_></rects>
      <tilted>0</tilted></_>
    <_>
      <rects>
        <_>
          5 16 11 8 -1.</_>
        <_>
          5 20 11 4 2.</_></rects>
      <tilted>0</tilted></_>
    <_>
      <rects>
        <_>
          5 17 7 6 -1.</_>
        <_>
          5 20 7 3 2.</_></rects>
      <tilted>0</tilted></_>
    <_>
      <rects>
        <_>
          6 1 8 9 -1.</_>
        <_>
          6 4 8 3 3.</_></rects>
      <tilted>0</tilted></_>
    <_>
      <rects>
        <_>
          7 0 14 15 -1.</_>
        <_>
          7 5 14 5 3.</_></rects>
      <tilted>0</tilted></_>
    <_>
      <rects>
        <_>
          7 10 9 4 -1.</_>
        <_>
          7 12 9 2 2.</_></rects>
      <tilted>0</tilted></_>
    <_>
      <rects>
        <_>
          7 15 16 7 -1.</_>
        <_>
          15 15 8 7 2.</_></rects>
      <tilted>0</tilted></_>
    <_>
      <rects>
        <_>
          8 7 8 2 -1.</_>
        <_>
          8 7 4 1 2.</_>
        <_>
          12 8 4 1 2.</_></rects>
      <tilted>0</tilted></_>
    <_>
      <rects>
        <_>
          8 7 4 4 -1.</_>
        <_>
          8 9 4 2 2.</_></rects>
      <tilted>0</tilted></_>
    <_>
      <rects>
        <_>
          9 0 9 3 -1.</_>
        <_>
          9 1 9 1 3.</_></rects>
      <tilted>0</tilted></_>
    <_>
      <rects>
        <_>
          9 3 3 10 -1.</_>
        <_>
          10 3 1 10 3.</_></rects>
      <tilted>0</tilted></_>
    <_>
      <rects>
        <_>
          10 1 12 8 -1.</_>
        <_>
          14 1 4 8 3.</_></rects>
      <tilted>0</tilted></_>
    <_>
      <rects>
        <_>
          10 1 10 1 -1.</_>
        <_>
          15 1 5 1 2.</_></rects>
      <tilted>0</tilted></_>
    <_>
      <rects>
        <_>
          10 10 14 8 -1.</_>
        <_>
          17 10 7 8 2.</_></rects>
      <tilted>0</tilted></_>
    <_>
      <rects>
        <_>
          11 0 1 12 -1.</_>
        <_>
          11 4 1 4 3.</_></rects>
      <tilted>0</tilted></_>
    <_>
      <rects>
        <_>
          11 1 4 6 -1.</_>
        <_>
          11 3 4 2 3.</_></rects>
      <tilted>0</tilted></_>
    <_>
      <rects>
        <_>
          11 15 12 8 -1.</_>
        <_>
          17 15 6 8 2.</_></rects>
      <tilted>0</tilted></_>
    <_>
      <rects>
        <_>
          13 0 6 8 -1.</_>
        <_>
          15 0 2 8 3.</_></rects>
      <tilted>0</tilted></_>
    <_>
      <rects>
        <_>
          14 0 10 1 -1.</_>
        <_>
          19 0 5 1 2.</_></rects>
      <tilted>0</tilted></_>
    <_>
      <rects>
        <_>
          15 0 8 1 -1.</_>
        <_>
          19 0 4 1 2.</_></rects>
      <tilted>0</tilted></_>
    <_>
      <rects>
        <_>
          15 0 8 8 -1.</_>
        <_>
          19 0 4 8 2.</_></rects>
      <tilted>0</tilted></_>
    <_>
      <rects>
        <_>
          16 0 8 8 -1.</_>
        <_>
          16 0 4 4 2.</_>
        <_>
          20 4 4 4 2.</_></rects>
      <tilted>0</tilted></_>
    <_>
      <rects>
        <_>
          16 2 8 18 -1.</_>
        <_>
          20 2 4 18 2.</_></rects>
      <tilted>0</tilted></_>
    <_>
      <rects>
        <_>
          17 3 2 8 -1.</_>
        <_>
          17 3 1 4 2.</_>
        <_>
          18 7 1 4 2.</_></rects>
      <tilted>0</tilted></_>
    <_>
      <rects>
        <_>
          18 5 6 11 -1.</_>
        <_>
          21 5 3 11 2.</_></rects>
      <tilted>0</tilted></_>
    <_>
      <rects>
        <_>
          18 9 6 1 -1.</_>
        <_>
          21 9 3 1 2.</_></rects>
      <tilted>0</tilted></_>
    <_>
      <rects>
        <_>
          19 2 2 6 -1.</_>
        <_>
          19 4 2 2 3.</_></rects>
      <tilted>0</tilted></_>
    <_>
      <rects>
        <_>
          20 1 2 19 -1.</_>
        <_>
          21 1 1 19 2.</_></rects>
      <tilted>0</tilted></_>
    <_>
      <rects>
        <_>
          21 5 3 4 -1.</_>
        <_>
          22 5 1 4 3.</_></rects>
      <tilted>0</tilted></_>
    <_>
      <rects>
        <_>
          22 0 2 2 -1.</_>
        <_>
          23 0 1 2 2.</_></rects>
      <tilted>0</tilted></_></features></cascade>
</opencv_storage>
